{
  "map": {
    "width": 50,
    "height": 50
  },
  "iterations": 8,
  "populations": [
    {
      "character": "🍅",
      "initialPopulation": 300,
      "type": 1,
      "canMove": false,
      "randomPoints": true,
      "r": 0,
      "g": 125,
      "b": 0
    },
    {
      "character": "🤔",
      "initialPopulation": 40,
      "keep": 1,
      "type": 2,
      "canMove": true,
      "randomPoints": false,
      "featureProps": [
        "lastEatTime",
        "lastAction"
      ],
      "energyLoss": 0.05,
      "r": 0,
      "g": 0,
      "b": 255,
      "mutationRate": 0.01,
      "mutationScale": 1,
      "net": [
        [
          10,
          "softsign"
        ],
        [
          4
        ]
      ],
      "dna": {
        "age": 210,
        "weights": [
          [
            {
              "0": -0.46423017978668213,
              "1": 0.060879554599523544,
              "2": -0.21318736672401428,
              "3": 0.4381149709224701,
              "4": 0.4044940173625946,
              "5": 0.42166048288345337,
              "6": 0.1491987705230713,
              "7": -0.4060329496860504,
              "8": 0.6441382169723511,
              "9": -0.2926882803440094,
              "10": 0.21132847666740417,
              "11": -0.4912143647670746,
              "12": -0.35702717304229736,
              "13": 0.5352163910865784,
              "14": -0.5164996385574341,
              "15": -0.6307942867279053,
              "16": -0.28649091720581055,
              "17": -0.32141512632369995,
              "18": -0.06981569528579712,
              "19": -0.37360596656799316,
              "20": 0.14901964366436005,
              "21": -0.3858186900615692,
              "22": -0.0013842766638845205,
              "23": -0.27546098828315735,
              "24": -0.6665770411491394,
              "25": -0.24180850386619568,
              "26": 0.1809103935956955,
              "27": 0.0010876812739297748,
              "28": 0.46967658400535583,
              "29": -0.6144568920135498,
              "30": -0.1820986121892929,
              "31": -0.06646792590618134,
              "32": 0.33522918820381165,
              "33": 0.057780392467975616,
              "34": -0.3936614692211151,
              "35": -0.485242635011673,
              "36": 0.11125072836875916,
              "37": 0.3863527774810791,
              "38": 0.3901391327381134,
              "39": -0.06343381851911545,
              "40": 0.20146381855010986,
              "41": -0.2881834805011749,
              "42": 0.3158830404281616,
              "43": -0.4480292797088623,
              "44": 0.04504180699586868,
              "45": -0.08310601860284805,
              "46": 0.6860145330429077,
              "47": -0.07925477623939514,
              "48": -0.4286748170852661,
              "49": 0.25008052587509155,
              "50": 0.6306232810020447,
              "51": 0.6576137542724609,
              "52": 0.5068604350090027,
              "53": 0.16454006731510162,
              "54": -0.2508803904056549,
              "55": -0.19333532452583313,
              "56": -0.32408976554870605,
              "57": 0.5972364544868469,
              "58": -0.0581062026321888,
              "59": 0.33900344371795654
            },
            {
              "0": -0.46423017978668213,
              "1": 0.060879554599523544,
              "2": -0.21318736672401428,
              "3": 0.4381149709224701,
              "4": 0.4044940173625946,
              "5": 0.42166048288345337,
              "6": 0.1491987705230713,
              "7": -0.4060329496860504,
              "8": 0.6441382169723511,
              "9": -0.2926882803440094
            }
          ],
          [
            {
              "0": 0.1172942966222763,
              "1": 0.15807084739208221,
              "2": 0.5171111226081848,
              "3": 0.4043469727039337,
              "4": 0.24298927187919617,
              "5": -0.04968349263072014,
              "6": -0.4523339867591858,
              "7": -0.31053850054740906,
              "8": -0.18685030937194824,
              "9": -0.3974234163761139,
              "10": -0.4386439919471741,
              "11": -0.5109732747077942,
              "12": -0.223795086145401,
              "13": -0.29818734526634216,
              "14": -0.25174951553344727,
              "15": -0.05349928140640259,
              "16": -0.13336066901683807,
              "17": -0.07905760407447815,
              "18": -0.5109502673149109,
              "19": 0.5907375812530518,
              "20": 0.3044789433479309,
              "21": -0.5035492181777954,
              "22": 0.30266642570495605,
              "23": 0.06133580952882767,
              "24": 0.1361561268568039,
              "25": -0.6595007181167603,
              "26": 0.217069610953331,
              "27": 0.14802195131778717,
              "28": -0.3467501997947693,
              "29": 0.3246420621871948,
              "30": 0.10877709835767746,
              "31": -0.18387456238269806,
              "32": -0.6516168713569641,
              "33": -0.7077297568321228,
              "34": 0.10859350115060806,
              "35": 0.73058021068573,
              "36": 0.036283332854509354,
              "37": 0.2847263813018799,
              "38": -0.46479761600494385,
              "39": 0.2669346034526825
            },
            {
              "0": 0.1172942966222763,
              "1": 0.15807084739208221,
              "2": 0.5171111226081848,
              "3": 0.4043469727039337
            }
          ]
        ]
      }
    }
  ],
  "seed": "battlearena"
}